digraph Tree {
node [shape=box] ;
0 [label="TotalWorkingYears <= 1.5\ngini = 0.27\nsamples = 4410\nvalue = [3699, 711]"] ;
1 [label="Age <= 33.5\ngini = 0.5\nsamples = 275\nvalue = [141, 134]"] ;
0 -> 1 [labeldistance=2.5, labelangle=45, headlabel="True"] ;
2 [label="MonthlyIncome <= 112610.0\ngini = 0.495\nsamples = 239\nvalue = [108, 131]"] ;
1 -> 2 ;
3 [label="MonthlyIncome <= 23140.0\ngini = 0.473\nsamples = 203\nvalue = [78, 125]"] ;
2 -> 3 ;
4 [label="MonthlyIncome <= 20325.0\ngini = 0.245\nsamples = 21\nvalue = [18, 3]"] ;
3 -> 4 ;
5 [label="MonthlyIncome <= 19425.0\ngini = 0.444\nsamples = 9\nvalue = [6, 3]"] ;
4 -> 5 ;
6 [label="gini = 0.0\nsamples = 6\nvalue = [6, 0]"] ;
5 -> 6 ;
7 [label="gini = 0.0\nsamples = 3\nvalue = [0, 3]"] ;
5 -> 7 ;
8 [label="gini = 0.0\nsamples = 12\nvalue = [12, 0]"] ;
4 -> 8 ;
9 [label="Age <= 23.5\ngini = 0.442\nsamples = 182\nvalue = [60, 122]"] ;
3 -> 9 ;
10 [label="Age <= 18.5\ngini = 0.269\nsamples = 75\nvalue = [12, 63]"] ;
9 -> 10 ;
11 [label="MonthlyIncome <= 25995.0\ngini = 0.49\nsamples = 21\nvalue = [9, 12]"] ;
10 -> 11 ;
12 [label="gini = 0.0\nsamples = 6\nvalue = [0, 6]"] ;
11 -> 12 ;
13 [label="MonthlyIncome <= 33490.0\ngini = 0.48\nsamples = 15\nvalue = [9, 6]"] ;
11 -> 13 ;
14 [label="gini = 0.0\nsamples = 6\nvalue = [6, 0]"] ;
13 -> 14 ;
15 [label="gini = 0.444\nsamples = 9\nvalue = [3, 6]"] ;
13 -> 15 ;
16 [label="MonthlyIncome <= 106255.0\ngini = 0.105\nsamples = 54\nvalue = [3, 51]"] ;
10 -> 16 ;
17 [label="gini = 0.0\nsamples = 51\nvalue = [0, 51]"] ;
16 -> 17 ;
18 [label="gini = 0.0\nsamples = 3\nvalue = [3, 0]"] ;
16 -> 18 ;
19 [label="MonthlyIncome <= 32530.0\ngini = 0.495\nsamples = 107\nvalue = [48, 59]"] ;
9 -> 19 ;
20 [label="TotalWorkingYears <= 0.5\ngini = 0.284\nsamples = 35\nvalue = [6, 29]"] ;
19 -> 20 ;
21 [label="gini = 0.0\nsamples = 3\nvalue = [3, 0]"] ;
20 -> 21 ;
22 [label="MonthlyIncome <= 27095.0\ngini = 0.17\nsamples = 32\nvalue = [3, 29]"] ;
20 -> 22 ;
23 [label="gini = 0.397\nsamples = 11\nvalue = [3, 8]"] ;
22 -> 23 ;
24 [label="gini = 0.0\nsamples = 21\nvalue = [0, 21]"] ;
22 -> 24 ;
25 [label="MonthlyIncome <= 60740.0\ngini = 0.486\nsamples = 72\nvalue = [42, 30]"] ;
19 -> 25 ;
26 [label="Age <= 32.5\ngini = 0.408\nsamples = 42\nvalue = [30, 12]"] ;
25 -> 26 ;
27 [label="gini = 0.355\nsamples = 39\nvalue = [30, 9]"] ;
26 -> 27 ;
28 [label="gini = 0.0\nsamples = 3\nvalue = [0, 3]"] ;
26 -> 28 ;
29 [label="Age <= 24.5\ngini = 0.48\nsamples = 30\nvalue = [12, 18]"] ;
25 -> 29 ;
30 [label="gini = 0.0\nsamples = 3\nvalue = [3, 0]"] ;
29 -> 30 ;
31 [label="gini = 0.444\nsamples = 27\nvalue = [9, 18]"] ;
29 -> 31 ;
32 [label="Age <= 20.0\ngini = 0.278\nsamples = 36\nvalue = [30, 6]"] ;
2 -> 32 ;
33 [label="MonthlyIncome <= 155870.0\ngini = 0.444\nsamples = 18\nvalue = [12, 6]"] ;
32 -> 33 ;
34 [label="gini = 0.0\nsamples = 6\nvalue = [6, 0]"] ;
33 -> 34 ;
35 [label="MonthlyIncome <= 173350.0\ngini = 0.5\nsamples = 12\nvalue = [6, 6]"] ;
33 -> 35 ;
36 [label="gini = 0.0\nsamples = 6\nvalue = [0, 6]"] ;
35 -> 36 ;
37 [label="gini = 0.0\nsamples = 6\nvalue = [6, 0]"] ;
35 -> 37 ;
38 [label="gini = 0.0\nsamples = 18\nvalue = [18, 0]"] ;
32 -> 38 ;
39 [label="MonthlyIncome <= 25425.0\ngini = 0.153\nsamples = 36\nvalue = [33, 3]"] ;
1 -> 39 ;
40 [label="Age <= 34.5\ngini = 0.5\nsamples = 6\nvalue = [3, 3]"] ;
39 -> 40 ;
41 [label="gini = 0.0\nsamples = 3\nvalue = [3, 0]"] ;
40 -> 41 ;
42 [label="gini = 0.0\nsamples = 3\nvalue = [0, 3]"] ;
40 -> 42 ;
43 [label="gini = 0.0\nsamples = 30\nvalue = [30, 0]"] ;
39 -> 43 ;
44 [label="Age <= 33.5\ngini = 0.24\nsamples = 4135\nvalue = [3558, 577]"] ;
0 -> 44 [labeldistance=2.5, labelangle=-45, headlabel="False"] ;
45 [label="TotalWorkingYears <= 8.5\ngini = 0.316\nsamples = 1483\nvalue = [1191, 292]"] ;
44 -> 45 ;
46 [label="MonthlyIncome <= 27485.0\ngini = 0.346\nsamples = 945\nvalue = [735, 210]"] ;
45 -> 46 ;
47 [label="Age <= 28.5\ngini = 0.425\nsamples = 186\nvalue = [129, 57]"] ;
46 -> 47 ;
48 [label="MonthlyIncome <= 26115.0\ngini = 0.339\nsamples = 111\nvalue = [87, 24]"] ;
47 -> 48 ;
49 [label="TotalWorkingYears <= 7.5\ngini = 0.291\nsamples = 102\nvalue = [84, 18]"] ;
48 -> 49 ;
50 [label="MonthlyIncome <= 22705.0\ngini = 0.238\nsamples = 87\nvalue = [75, 12]"] ;
49 -> 50 ;
51 [label="gini = 0.0\nsamples = 36\nvalue = [36, 0]"] ;
50 -> 51 ;
52 [label="gini = 0.36\nsamples = 51\nvalue = [39, 12]"] ;
50 -> 52 ;
53 [label="MonthlyIncome <= 20520.0\ngini = 0.48\nsamples = 15\nvalue = [9, 6]"] ;
49 -> 53 ;
54 [label="gini = 0.0\nsamples = 6\nvalue = [0, 6]"] ;
53 -> 54 ;
55 [label="gini = 0.0\nsamples = 9\nvalue = [9, 0]"] ;
53 -> 55 ;
56 [label="MonthlyIncome <= 26765.0\ngini = 0.444\nsamples = 9\nvalue = [3, 6]"] ;
48 -> 56 ;
57 [label="gini = 0.0\nsamples = 6\nvalue = [0, 6]"] ;
56 -> 57 ;
58 [label="gini = 0.0\nsamples = 3\nvalue = [3, 0]"] ;
56 -> 58 ;
59 [label="Age <= 32.5\ngini = 0.493\nsamples = 75\nvalue = [42, 33]"] ;
47 -> 59 ;
60 [label="TotalWorkingYears <= 3.5\ngini = 0.499\nsamples = 63\nvalue = [30, 33]"] ;
59 -> 60 ;
61 [label="gini = 0.0\nsamples = 9\nvalue = [0, 9]"] ;
60 -> 61 ;
62 [label="TotalWorkingYears <= 7.5\ngini = 0.494\nsamples = 54\nvalue = [30, 24]"] ;
60 -> 62 ;
63 [label="gini = 0.5\nsamples = 48\nvalue = [24, 24]"] ;
62 -> 63 ;
64 [label="gini = 0.0\nsamples = 6\nvalue = [6, 0]"] ;
62 -> 64 ;
65 [label="gini = 0.0\nsamples = 12\nvalue = [12, 0]"] ;
59 -> 65 ;
66 [label="MonthlyIncome <= 47670.0\ngini = 0.322\nsamples = 759\nvalue = [606, 153]"] ;
46 -> 66 ;
67 [label="MonthlyIncome <= 42010.0\ngini = 0.24\nsamples = 279\nvalue = [240, 39]"] ;
66 -> 67 ;
68 [label="MonthlyIncome <= 41760.0\ngini = 0.312\nsamples = 186\nvalue = [150, 36]"] ;
67 -> 68 ;
69 [label="Age <= 27.5\ngini = 0.296\nsamples = 183\nvalue = [150, 33]"] ;
68 -> 69 ;
70 [label="gini = 0.18\nsamples = 90\nvalue = [81, 9]"] ;
69 -> 70 ;
71 [label="gini = 0.383\nsamples = 93\nvalue = [69, 24]"] ;
69 -> 71 ;
72 [label="gini = 0.0\nsamples = 3\nvalue = [0, 3]"] ;
68 -> 72 ;
73 [label="TotalWorkingYears <= 6.5\ngini = 0.062\nsamples = 93\nvalue = [90, 3]"] ;
67 -> 73 ;
74 [label="gini = 0.0\nsamples = 69\nvalue = [69, 0]"] ;
73 -> 74 ;
75 [label="TotalWorkingYears <= 7.5\ngini = 0.219\nsamples = 24\nvalue = [21, 3]"] ;
73 -> 75 ;
76 [label="gini = 0.444\nsamples = 9\nvalue = [6, 3]"] ;
75 -> 76 ;
77 [label="gini = 0.0\nsamples = 15\nvalue = [15, 0]"] ;
75 -> 77 ;
78 [label="MonthlyIncome <= 47725.0\ngini = 0.362\nsamples = 480\nvalue = [366, 114]"] ;
66 -> 78 ;
79 [label="gini = 0.0\nsamples = 3\nvalue = [0, 3]"] ;
78 -> 79 ;
80 [label="MonthlyIncome <= 83240.0\ngini = 0.357\nsamples = 477\nvalue = [366, 111]"] ;
78 -> 80 ;
81 [label="MonthlyIncome <= 81075.0\ngini = 0.41\nsamples = 240\nvalue = [171, 69]"] ;
80 -> 81 ;
82 [label="gini = 0.393\nsamples = 234\nvalue = [171, 63]"] ;
81 -> 82 ;
83 [label="gini = 0.0\nsamples = 6\nvalue = [0, 6]"] ;
81 -> 83 ;
84 [label="TotalWorkingYears <= 5.5\ngini = 0.292\nsamples = 237\nvalue = [195, 42]"] ;
80 -> 84 ;
85 [label="gini = 0.184\nsamples = 117\nvalue = [105, 12]"] ;
84 -> 85 ;
86 [label="gini = 0.375\nsamples = 120\nvalue = [90, 30]"] ;
84 -> 86 ;
87 [label="TotalWorkingYears <= 21.0\ngini = 0.258\nsamples = 538\nvalue = [456, 82]"] ;
45 -> 87 ;
88 [label="Age <= 30.5\ngini = 0.256\nsamples = 537\nvalue = [456, 81]"] ;
87 -> 88 ;
89 [label="MonthlyIncome <= 20855.0\ngini = 0.195\nsamples = 246\nvalue = [219, 27]"] ;
88 -> 89 ;
90 [label="Age <= 29.5\ngini = 0.5\nsamples = 12\nvalue = [6, 6]"] ;
89 -> 90 ;
91 [label="gini = 0.0\nsamples = 6\nvalue = [0, 6]"] ;
90 -> 91 ;
92 [label="gini = 0.0\nsamples = 6\nvalue = [6, 0]"] ;
90 -> 92 ;
93 [label="MonthlyIncome <= 29210.0\ngini = 0.163\nsamples = 234\nvalue = [213, 21]"] ;
89 -> 93 ;
94 [label="MonthlyIncome <= 28380.0\ngini = 0.278\nsamples = 54\nvalue = [45, 9]"] ;
93 -> 94 ;
95 [label="gini = 0.117\nsamples = 48\nvalue = [45, 3]"] ;
94 -> 95 ;
96 [label="gini = 0.0\nsamples = 6\nvalue = [0, 6]"] ;
94 -> 96 ;
97 [label="MonthlyIncome <= 67960.0\ngini = 0.124\nsamples = 180\nvalue = [168, 12]"] ;
93 -> 97 ;
98 [label="gini = 0.049\nsamples = 120\nvalue = [117, 3]"] ;
97 -> 98 ;
99 [label="gini = 0.255\nsamples = 60\nvalue = [51, 9]"] ;
97 -> 99 ;
100 [label="TotalWorkingYears <= 9.5\ngini = 0.302\nsamples = 291\nvalue = [237, 54]"] ;
88 -> 100 ;
101 [label="MonthlyIncome <= 179135.0\ngini = 0.105\nsamples = 54\nvalue = [51, 3]"] ;
100 -> 101 ;
102 [label="gini = 0.0\nsamples = 51\nvalue = [51, 0]"] ;
101 -> 102 ;
103 [label="gini = 0.0\nsamples = 3\nvalue = [0, 3]"] ;
101 -> 103 ;
104 [label="MonthlyIncome <= 96575.0\ngini = 0.338\nsamples = 237\nvalue = [186, 51]"] ;
100 -> 104 ;
105 [label="MonthlyIncome <= 95745.0\ngini = 0.388\nsamples = 171\nvalue = [126, 45]"] ;
104 -> 105 ;
106 [label="gini = 0.375\nsamples = 168\nvalue = [126, 42]"] ;
105 -> 106 ;
107 [label="gini = 0.0\nsamples = 3\nvalue = [0, 3]"] ;
105 -> 107 ;
108 [label="MonthlyIncome <= 163910.0\ngini = 0.165\nsamples = 66\nvalue = [60, 6]"] ;
104 -> 108 ;
109 [label="gini = 0.0\nsamples = 39\nvalue = [39, 0]"] ;
108 -> 109 ;
110 [label="gini = 0.346\nsamples = 27\nvalue = [21, 6]"] ;
108 -> 110 ;
111 [label="gini = 0.0\nsamples = 1\nvalue = [0, 1]"] ;
87 -> 111 ;
112 [label="TotalWorkingYears <= 39.0\ngini = 0.192\nsamples = 2652\nvalue = [2367, 285]"] ;
44 -> 112 ;
113 [label="MonthlyIncome <= 10300.0\ngini = 0.189\nsamples = 2646\nvalue = [2367, 279]"] ;
112 -> 113 ;
114 [label="gini = 0.0\nsamples = 3\nvalue = [0, 3]"] ;
113 -> 114 ;
115 [label="TotalWorkingYears <= 3.5\ngini = 0.187\nsamples = 2643\nvalue = [2367, 276]"] ;
113 -> 115 ;
116 [label="MonthlyIncome <= 137390.0\ngini = 0.408\nsamples = 56\nvalue = [40, 16]"] ;
115 -> 116 ;
117 [label="Age <= 48.5\ngini = 0.325\nsamples = 49\nvalue = [39, 10]"] ;
116 -> 117 ;
118 [label="Age <= 34.5\ngini = 0.18\nsamples = 40\nvalue = [36, 4]"] ;
117 -> 118 ;
119 [label="gini = 0.444\nsamples = 9\nvalue = [6, 3]"] ;
118 -> 119 ;
120 [label="gini = 0.062\nsamples = 31\nvalue = [30, 1]"] ;
118 -> 120 ;
121 [label="TotalWorkingYears <= 2.5\ngini = 0.444\nsamples = 9\nvalue = [3, 6]"] ;
117 -> 121 ;
122 [label="gini = 0.0\nsamples = 3\nvalue = [3, 0]"] ;
121 -> 122 ;
123 [label="gini = 0.0\nsamples = 6\nvalue = [0, 6]"] ;
121 -> 123 ;
124 [label="Age <= 36.5\ngini = 0.245\nsamples = 7\nvalue = [1, 6]"] ;
116 -> 124 ;
125 [label="gini = 0.0\nsamples = 6\nvalue = [0, 6]"] ;
124 -> 125 ;
126 [label="gini = 0.0\nsamples = 1\nvalue = [1, 0]"] ;
124 -> 126 ;
127 [label="TotalWorkingYears <= 19.5\ngini = 0.181\nsamples = 2587\nvalue = [2327, 260]"] ;
115 -> 127 ;
128 [label="MonthlyIncome <= 63655.0\ngini = 0.202\nsamples = 1885\nvalue = [1670, 215]"] ;
127 -> 128 ;
129 [label="MonthlyIncome <= 62665.0\ngini = 0.232\nsamples = 1227\nvalue = [1063, 164]"] ;
128 -> 129 ;
130 [label="gini = 0.22\nsamples = 1209\nvalue = [1057, 152]"] ;
129 -> 130 ;
131 [label="gini = 0.444\nsamples = 18\nvalue = [6, 12]"] ;
129 -> 131 ;
132 [label="Age <= 48.5\ngini = 0.143\nsamples = 658\nvalue = [607, 51]"] ;
128 -> 132 ;
133 [label="gini = 0.122\nsamples = 598\nvalue = [559, 39]"] ;
132 -> 133 ;
134 [label="gini = 0.32\nsamples = 60\nvalue = [48, 12]"] ;
132 -> 134 ;
135 [label="MonthlyIncome <= 15610.0\ngini = 0.12\nsamples = 702\nvalue = [657, 45]"] ;
127 -> 135 ;
136 [label="gini = 0.0\nsamples = 3\nvalue = [0, 3]"] ;
135 -> 136 ;
137 [label="MonthlyIncome <= 171000.0\ngini = 0.113\nsamples = 699\nvalue = [657, 42]"] ;
135 -> 137 ;
138 [label="gini = 0.102\nsamples = 666\nvalue = [630, 36]"] ;
137 -> 138 ;
139 [label="gini = 0.298\nsamples = 33\nvalue = [27, 6]"] ;
137 -> 139 ;
140 [label="gini = 0.0\nsamples = 6\nvalue = [0, 6]"] ;
112 -> 140 ;
}